/*!
 * The following copyright notice may not be removed under any circumstances.
 * 
 * Copyright:
 * (C) 2000 PARACHUTE Type & Image Corp. Designed by Panos Vassiliou. Based on
 * Paul Renner's Futura (1927).
 */
Cufon.registerFont({"w":633,"face":{"font-family":"Futura","font-weight":400,"font-stretch":"normal","units-per-em":"1000","panose-1":"0 0 4 0 0 0 0 0 0 0","ascent":"800","descent":"-200","x-height":"11","bbox":"-181 -981 1102 267","underline-thickness":"20","underline-position":"-123","unicode-range":"U+0020-U+03CE"},"glyphs":{" ":{"w":317},"!":{"d":"127,-165r0,-589r79,0r0,589r-79,0xm224,-45v0,31,-27,57,-58,57v-31,0,-57,-26,-57,-57v0,-31,26,-57,57,-57v31,0,58,26,58,57","w":333},"\"":{"d":"253,-496r-46,0r-14,-258r75,0xm115,-496r-47,0r-13,-258r74,0","w":322},"#":{"d":"460,-431r-25,152r113,0r0,63r-125,0r-36,216r-60,0r35,-216r-126,0r-33,216r-61,0r33,-216r-115,0r0,-63r125,0r23,-152r-118,0r0,-63r128,0r33,-210r64,0r-34,210r127,0r34,-210r63,0r-35,210r104,0r0,63r-114,0xm270,-431r-23,152r127,0r24,-152r-128,0"},"$":{"d":"549,-218v0,120,-92,207,-200,226r0,108r-52,0r0,-104v-110,-2,-190,-67,-228,-148r52,-48v39,81,98,123,176,125r0,-307v-60,-29,-97,-48,-112,-57v-49,-29,-74,-76,-74,-139v-1,-114,79,-196,186,-203r0,-99r52,0r0,100v71,9,126,41,165,96r-44,54v-32,-46,-72,-73,-121,-80r0,267r94,47v71,35,106,89,106,162xm297,-693v-85,7,-145,131,-72,196v15,13,39,27,72,44r0,-240xm349,-66v64,-16,119,-73,119,-149v0,-48,-40,-90,-119,-127r0,276","w":616},"%":{"d":"358,-609v0,91,-73,155,-164,155v-91,0,-164,-64,-164,-155v0,-91,73,-157,164,-157v91,0,164,66,164,157xm162,14r-46,-15r445,-767r48,14xm690,-154v0,90,-74,156,-164,156v-90,0,-164,-66,-164,-156v0,-91,73,-156,164,-156v91,0,164,65,164,156xm298,-609v0,-55,-50,-101,-104,-101v-54,0,-104,46,-104,101v0,54,50,100,104,100v54,0,104,-46,104,-100xm630,-153v0,-54,-50,-102,-104,-102v-54,0,-104,48,-104,102v0,54,50,99,104,99v54,0,104,-45,104,-99","w":726},"&":{"d":"489,-616v-4,96,-62,135,-140,185r167,221v52,-52,84,-87,96,-105r53,38r-105,118r127,159r-93,0r-89,-113v-107,86,-198,129,-274,129v-113,0,-211,-91,-207,-203v5,-135,109,-199,219,-262v-36,-44,-77,-122,-77,-162v0,-87,80,-158,166,-158v85,0,161,68,157,153xm418,-617v0,-47,-39,-89,-86,-88v-77,1,-115,99,-66,164r42,61v27,-22,110,-75,110,-137xm152,-299v-94,83,-32,242,88,242v53,0,127,-37,220,-111r-175,-230r-41,28v-45,31,-75,56,-92,71","w":683},"'":{"d":"137,-496r-47,0r-13,-258r74,0","w":228},"(":{"d":"148,190v-112,-239,-115,-731,0,-972r53,34v-98,281,-100,621,0,905","w":262},")":{"d":"114,-782v113,240,116,731,0,972r-53,-33v100,-282,98,-628,0,-905","w":262},"*":{"d":"345,-554r88,110r-59,43r-78,-118r-78,118r-59,-43r89,-110r-137,-38r23,-69r133,49r-6,-140r71,0r-6,140r133,-49r23,69","w":592},"+":{"d":"352,-221r0,221r-71,0r0,-221r-221,0r0,-70r221,0r0,-221r71,0r0,221r222,0r0,70r-222,0"},",":{"d":"120,161r-49,-9r81,-250r72,12","w":317},"-":{"d":"10,-287r0,-66r211,0r0,66r-211,0","w":230},"\u2010":{"d":"10,-287r0,-66r211,0r0,66r-211,0","w":230},".":{"d":"216,-44v0,30,-27,56,-58,56v-31,0,-57,-26,-57,-56v0,-31,26,-56,57,-56v31,0,58,25,58,56","w":317},"\/":{"d":"92,132r-60,-15r505,-943r59,15","w":628},"0":{"d":"601,-381v0,190,-109,395,-284,395v-176,0,-285,-206,-285,-395v0,-187,111,-387,285,-387v174,0,284,201,284,387xm521,-381v0,-139,-78,-315,-204,-315v-125,0,-205,178,-205,315v0,146,75,323,205,323v130,0,204,-177,204,-323"},"1":{"d":"299,0r0,-683r-117,0r0,-71r197,0r0,754r-80,0"},"2":{"d":"317,-768v129,-2,246,102,240,231v-5,111,-63,169,-138,251r-198,215r335,0r0,71r-496,0r287,-315v66,-74,123,-130,129,-225v5,-86,-73,-159,-159,-157v-96,3,-161,65,-157,167r-84,0v1,-148,108,-236,241,-238"},"3":{"d":"542,-210v0,127,-106,223,-233,223v-121,0,-223,-87,-222,-207r79,0v3,74,69,132,146,132v82,0,149,-70,149,-153v0,-94,-67,-146,-161,-143r0,-71v100,-4,150,-47,150,-129v0,-80,-55,-134,-134,-134v-75,0,-119,51,-125,122r-80,0v12,-116,82,-197,207,-197v119,0,215,86,213,205v-1,76,-45,139,-100,166v74,34,111,96,111,186"},"4":{"d":"487,-145r0,145r-76,0r0,-145r-399,0r0,-31r418,-599r57,0r0,562r103,0r0,68r-103,0xm411,-625r-4,0r-285,412r289,0r0,-412"},"5":{"d":"548,-253v0,152,-124,267,-282,267v-95,0,-172,-38,-229,-114r43,-53v38,52,104,95,186,96v111,2,201,-87,201,-198v0,-155,-193,-247,-330,-159r92,-340r310,0r0,71r-254,0r-53,178v181,-43,316,84,316,252","w":634},"6":{"d":"596,-254v0,145,-126,268,-281,268v-152,0,-278,-120,-278,-265v0,-64,23,-128,69,-193r227,-318r77,24r-175,239v182,-76,361,70,361,245xm515,-253v0,-106,-93,-199,-199,-199v-106,0,-200,93,-200,199v0,107,93,198,200,198v106,0,199,-92,199,-198"},"7":{"d":"113,7r-74,-24r459,-666r-429,0r0,-71r564,0"},"8":{"d":"531,-565v-1,78,-49,147,-108,171v85,39,127,105,127,196v0,122,-112,212,-233,212v-123,0,-234,-92,-234,-212v0,-91,42,-157,127,-196v-58,-25,-106,-93,-107,-171v-2,-117,97,-203,214,-203v117,0,216,86,214,203xm455,-565v0,-74,-65,-138,-138,-138v-74,0,-139,64,-139,138v0,74,64,137,139,137v74,0,138,-63,138,-137xm470,-207v0,-82,-71,-151,-153,-151v-82,0,-154,69,-154,151v0,82,72,151,154,151v82,0,153,-69,153,-151"},"9":{"d":"318,-768v153,0,278,118,278,269v0,62,-23,125,-68,188r-227,318r-78,-24r176,-240v-181,79,-362,-70,-362,-244v0,-148,131,-267,281,-267xm518,-501v0,-107,-93,-198,-200,-198v-106,0,-200,92,-200,198v0,105,94,197,200,197v106,0,200,-92,200,-197"},":":{"d":"216,-431v0,31,-27,57,-58,57v-31,0,-57,-26,-57,-57v0,-31,26,-57,57,-57v31,0,58,26,58,57xm216,-45v0,31,-27,57,-58,57v-31,0,-57,-26,-57,-57v0,-31,26,-57,57,-57v31,0,58,26,58,57","w":317},";":{"d":"230,-431v0,31,-27,57,-58,57v-31,0,-57,-26,-57,-57v0,-31,26,-57,57,-57v31,0,58,26,58,57xm118,161r-50,-9r81,-251r73,12","w":317},"<":{"d":"62,-223r0,-67r509,-215r0,69r-420,180r420,189r0,69"},"=":{"d":"60,-313r0,-69r514,0r0,69r-514,0xm60,-130r0,-70r514,0r0,70r-514,0"},">":{"d":"62,2r0,-69r422,-189r-422,-180r0,-69r509,215r0,67"},"?":{"d":"246,-767v99,0,184,80,179,179v-6,124,-59,156,-186,191v-53,15,-79,44,-79,85v0,45,39,82,84,82v53,0,82,-44,82,-96r79,0v3,93,-69,170,-162,170v-90,0,-162,-72,-162,-162v0,-87,85,-140,181,-166v49,-13,84,-45,84,-103v0,-60,-45,-106,-105,-106v-72,0,-118,70,-94,148r-80,0v-10,-77,-6,-132,48,-176v36,-31,80,-46,131,-46xm297,-43v0,30,-25,56,-55,56v-30,0,-55,-26,-55,-56v0,-29,26,-53,55,-53v29,0,55,24,55,53","w":488},"@":{"d":"756,-443v0,139,-109,293,-231,292v-37,-1,-62,-17,-73,-50v-37,33,-80,50,-129,50v-85,2,-141,-69,-141,-155v0,-139,103,-297,236,-297v50,0,90,22,120,65r13,-47r57,0r-93,312v-13,38,-15,66,29,68v77,2,160,-149,160,-234v0,-154,-137,-273,-294,-273v-177,0,-324,161,-324,338v0,176,154,335,329,332v113,-2,208,-46,254,-117r63,14v-56,92,-176,155,-318,157v-210,3,-382,-180,-382,-391v0,-206,174,-387,377,-387v186,0,347,143,347,323xm509,-442v11,-55,-40,-103,-95,-103v-87,0,-172,139,-172,231v0,59,39,108,99,106v56,-1,111,-57,126,-103","w":788},"A":{"d":"584,0r-91,-224r-317,0r-91,224r-83,0r332,-785r333,785r-83,0xm335,-626r-133,334r266,0","w":669},"B":{"d":"254,-754v145,-2,221,66,221,200v0,71,-28,122,-84,153v89,16,154,89,154,191v-1,133,-106,210,-253,210r-215,0r0,-754r177,0xm399,-555v0,-96,-59,-134,-175,-131r-68,0r0,264r70,0v116,2,173,-36,173,-133xm465,-213v0,-112,-80,-146,-221,-142r-88,0r0,287r96,0v137,5,213,-44,213,-145","w":587},"C":{"d":"428,-63v94,-2,193,-53,238,-110r0,103v-74,53,-153,80,-237,80v-215,0,-396,-174,-396,-386v0,-211,187,-390,396,-390v88,0,167,29,237,86r0,103v-48,-60,-139,-111,-238,-113v-168,-4,-314,151,-314,317v0,165,157,313,314,310","w":723},"D":{"d":"640,-376v0,212,-168,384,-398,376r-165,0r0,-754r165,0v234,-7,398,162,398,378xm558,-376v1,-179,-132,-312,-324,-307r-78,0r0,612r78,0v191,6,324,-130,324,-305","w":672},"E":{"d":"77,0r0,-754r375,0r0,71r-296,0r0,242r288,0r0,71r-288,0r0,299r296,0r0,71r-375,0","w":516},"F":{"d":"156,-683r0,242r242,0r0,71r-242,0r0,370r-79,0r0,-754r331,0r0,71r-252,0","w":464},"G":{"d":"795,-376v10,246,-155,385,-371,389v-208,4,-391,-179,-391,-387v0,-216,180,-393,397,-393v139,0,250,61,331,184r-70,41v-63,-102,-152,-153,-265,-153v-165,0,-312,155,-312,319v0,169,143,319,313,319v140,0,282,-99,281,-250r-248,0r0,-69r335,0","w":828},"H":{"d":"577,0r0,-372r-421,0r0,372r-79,0r0,-754r79,0r0,313r421,0r0,-313r80,0r0,754r-80,0","w":733},"I":{"d":"77,0r0,-754r79,0r0,754r-79,0","w":233},"J":{"d":"42,59v61,0,76,-48,75,-122r0,-691r79,0r0,693v0,127,-52,191,-157,191v-63,0,-109,-29,-140,-88r53,-47v21,43,51,64,90,64","w":272},"K":{"d":"511,0r-339,-352r-16,15r0,337r-79,0r0,-754r79,0r0,342r333,-342r103,0r-357,362r380,392r-104,0","w":607},"L":{"d":"77,0r0,-754r79,0r0,683r201,0r0,71r-280,0","w":361},"M":{"d":"826,0r-121,-574r-251,606r-255,-606r-111,574r-78,0r170,-793r277,645r266,-644v25,102,85,366,181,792r-78,0","w":914},"N":{"d":"156,-608r0,608r-79,0r0,-793r617,655r0,-616r80,0r0,791","w":851},"O":{"d":"827,-380v0,213,-183,393,-397,393v-213,0,-397,-180,-397,-393v0,-208,188,-387,397,-387v209,0,397,179,397,387xm746,-380v0,-164,-150,-311,-316,-311v-166,0,-316,147,-316,311v0,168,148,317,316,317v168,0,316,-149,316,-317","w":861},"P":{"d":"485,-545v0,138,-88,212,-240,209r-89,0r0,336r-79,0r0,-754r167,0v154,-4,241,76,241,209xm403,-545v-2,-100,-62,-142,-178,-140r-69,0r0,280v135,9,250,-16,247,-140","w":510},"Q":{"d":"431,-767v212,0,397,182,397,393v0,96,-38,185,-114,266r113,115r-106,0r-63,-68v-66,49,-142,74,-227,74v-210,0,-396,-179,-396,-389v0,-209,187,-391,396,-391xm745,-377v0,-168,-146,-313,-314,-313v-168,0,-315,146,-315,313v0,165,150,313,315,313v66,0,123,-18,171,-54r-184,-185r109,0r132,139v57,-61,86,-132,86,-213","w":862},"R":{"d":"463,-547v3,122,-85,199,-205,200r245,347r-95,0r-234,-343r-18,0r0,343r-79,0r0,-754r134,0v164,-4,249,67,252,207xm382,-546v-2,-116,-85,-148,-226,-140r0,280v132,9,227,-26,226,-140","w":526},"S":{"d":"519,-218v0,183,-228,294,-385,190v-41,-26,-73,-62,-95,-108r52,-48v41,83,101,125,180,125v125,0,234,-162,117,-245v-32,-23,-213,-106,-233,-119v-48,-31,-74,-76,-74,-139v0,-160,171,-254,317,-178v36,18,65,42,86,72r-44,54v-38,-54,-88,-81,-149,-81v-105,0,-180,140,-87,206v41,29,151,80,209,109v70,36,106,89,106,162","w":558},"T":{"d":"273,-683r0,683r-80,0r0,-683r-188,0r0,-71r456,0r0,71r-188,0","w":467},"U":{"d":"342,-60v141,0,192,-74,192,-250r0,-444r79,0r0,520v-4,159,-116,249,-271,246v-176,-3,-272,-97,-272,-305r0,-461r80,0r0,444v-4,177,48,250,192,250","w":684},"V":{"d":"303,45r-303,-799r83,0r218,605r212,-605r84,0","w":596},"W":{"d":"839,51r-287,-673r-276,671r-271,-803r82,0r195,583r271,-650r273,650r195,-583r81,0","w":1107},"X":{"d":"455,0r-178,-320r-179,320r-92,0r225,-389r-208,-365r93,0r161,296r161,-296r93,0r-206,365r222,389r-92,0","w":553},"Y":{"d":"334,-330r0,330r-79,0r0,-330r-257,-424r91,0r206,345r205,-345r92,0","w":590},"Z":{"d":"147,-71r420,0r0,71r-557,0r439,-683r-391,0r0,-71r528,0","w":596},"[":{"d":"61,210r0,-971r188,0r0,64r-119,0r0,844r119,0r0,63r-188,0","w":310},"\\":{"d":"536,0r-504,-811r59,-15r505,810","w":628},"]":{"d":"61,210r0,-63r119,0r0,-844r-119,0r0,-64r188,0r0,971r-188,0","w":310},"^":{"d":"509,-309r-192,-377r-192,377r-63,-13r221,-438r67,0r221,438"},"_":{"d":"-1,188r0,-75r502,0r0,75r-502,0","w":500},"`":{"d":"208,-558r-135,-146r73,-31r110,151","w":331},"a":{"d":"35,-239v0,-137,96,-245,233,-245v77,0,135,28,175,85r0,-73r75,0r0,472r-75,0r0,-77v-29,50,-99,87,-173,88v-138,2,-235,-113,-235,-250xm447,-242v0,-99,-71,-175,-171,-175v-94,0,-165,86,-165,179v0,100,70,182,168,182v102,0,168,-81,168,-186","w":584},"b":{"d":"319,11v-75,-1,-145,-38,-173,-89r0,78r-75,0r0,-826r75,0r0,427v39,-57,98,-85,175,-85v137,0,233,109,233,245v0,138,-97,252,-235,250xm478,-239v0,-95,-72,-178,-166,-178v-104,0,-170,77,-170,179v0,101,69,182,168,182v98,0,168,-83,168,-183","w":584},"c":{"d":"105,-237v0,97,78,183,176,183v62,0,114,-25,156,-74r0,82v-48,38,-102,57,-161,57v-137,0,-247,-110,-247,-247v0,-137,111,-248,249,-248v58,0,109,17,154,52r0,82v-44,-46,-94,-69,-150,-69v-97,0,-177,86,-177,182","w":478},"d":{"d":"31,-239v0,-138,95,-245,233,-245v77,0,135,28,174,85r1,-427r74,0r0,826r-74,0v-1,-25,2,-55,-1,-78v-29,51,-97,88,-172,89v-138,2,-235,-113,-235,-250xm442,-243v0,-97,-71,-174,-170,-174v-94,0,-166,85,-166,178v0,100,71,183,168,183v102,0,168,-81,168,-187","w":584},"e":{"d":"29,-237v0,-137,99,-247,237,-247v145,0,242,110,235,258r-398,0v-3,103,69,177,170,176v65,0,114,-31,147,-93r68,18v-34,81,-113,135,-219,136v-139,2,-240,-108,-240,-248xm429,-282v-8,-74,-78,-143,-160,-143v-84,0,-158,67,-165,143r325,0","w":530},"f":{"d":"269,-763v-157,-55,-111,154,-118,290r118,0r0,65r-118,0r0,408r-75,0r0,-408r-53,0r0,-65r53,0r0,-177v-9,-141,72,-211,193,-179r0,66","w":270},"g":{"d":"270,197v145,0,181,-112,173,-272v-47,57,-106,86,-177,86v-131,0,-231,-114,-231,-247v0,-135,103,-248,238,-248v71,0,127,29,170,86r0,-74r75,0r0,444v3,184,-81,287,-245,290v-129,2,-237,-80,-242,-199r79,0v3,79,78,134,160,134xm447,-243v0,-99,-73,-174,-171,-174v-94,0,-165,85,-165,178v0,100,71,183,168,183v101,0,168,-82,168,-187","w":589},"h":{"d":"377,-276v0,-95,-19,-144,-104,-144v-84,0,-126,62,-126,185r0,235r-74,0r0,-826r74,0r0,423v32,-54,80,-81,143,-81v108,0,162,66,162,198r0,286r-75,0r0,-276","w":524},"i":{"d":"178,-634v0,29,-24,54,-54,54v-28,0,-54,-26,-54,-54v0,-28,26,-54,54,-54v28,0,54,26,54,54xm86,0r0,-473r75,0r0,473r-75,0","w":248},"j":{"d":"178,-634v0,29,-24,54,-54,54v-28,0,-54,-26,-54,-54v0,-28,26,-54,54,-54v28,0,54,26,54,54xm86,267r0,-740r75,0r0,740r-75,0","w":248},"k":{"d":"389,0r-223,-226r-19,26r0,200r-74,0r0,-826r74,0r0,545r188,-192r99,0r-207,208r263,265r-101,0","w":479},"l":{"d":"73,0r0,-826r74,0r0,826r-74,0","w":220},"m":{"d":"555,-484v112,1,151,67,150,187r0,297r-74,0r0,-286v1,-86,-18,-133,-93,-133v-75,0,-112,52,-112,157r0,262r-74,0r0,-277v0,-95,-33,-143,-98,-143v-71,0,-107,56,-107,168r0,252r-74,0r0,-472r74,0r0,59v27,-47,69,-71,126,-71v65,0,112,29,139,86v29,-57,76,-86,143,-86","w":778},"n":{"d":"290,-484v120,2,162,70,162,198r0,286r-75,0r0,-273v1,-99,-17,-146,-104,-146v-84,0,-126,61,-126,183r0,236r-74,0r0,-472r74,0r0,70v32,-55,80,-82,143,-82","w":524},"o":{"d":"541,-236v0,140,-117,247,-257,247v-137,0,-255,-110,-255,-246v0,-139,116,-249,255,-249v140,0,257,108,257,248xm465,-235v0,-102,-81,-182,-184,-182v-98,0,-176,85,-176,182v0,95,79,179,176,179v102,0,184,-79,184,-179","w":570},"p":{"d":"554,-232v0,138,-97,244,-233,244v-77,0,-136,-28,-175,-85r0,340r-75,0r0,-739r75,0r0,78v29,-51,98,-89,173,-90v137,-2,235,113,235,252xm478,-232v0,-98,-68,-185,-168,-185v-102,0,-168,86,-168,189v0,98,71,173,170,173v94,0,166,-81,166,-177","w":584},"q":{"d":"266,-484v76,0,143,41,173,90r0,-78r74,0r0,739r-74,0r0,-340v-39,57,-98,85,-175,85v-136,0,-233,-106,-233,-243v0,-138,96,-253,235,-253xm442,-232v0,-98,-68,-185,-168,-185v-102,0,-168,86,-168,189v0,98,71,173,170,173v94,0,166,-81,166,-177","w":584},"r":{"d":"285,-393v-90,-59,-139,13,-139,158r0,235r-75,0r0,-470r75,0v1,16,-2,37,1,51v50,-67,105,-83,177,-41","w":313},"s":{"d":"365,-142v0,131,-165,195,-272,124v-31,-20,-53,-47,-67,-81r50,-38v25,57,66,86,121,86v75,0,130,-102,62,-146v-27,-17,-130,-48,-152,-68v-26,-25,-42,-52,-42,-88v0,-102,125,-165,220,-113v24,12,43,29,56,49r-45,41v-29,-67,-154,-60,-157,16v-2,64,126,78,172,112v35,26,54,60,54,106","w":403},"t":{"d":"154,-407r0,407r-74,0r0,-407r-53,0r0,-66r53,0r0,-162r74,0r0,162r86,0r0,66r-86,0","w":239},"u":{"d":"443,-189v3,138,-64,200,-188,200v-125,0,-189,-62,-189,-200r0,-283r75,0r0,263v-1,105,22,156,114,156v91,0,114,-52,114,-156r0,-263r74,0r0,283","w":509},"v":{"d":"238,38r-26,-50r-213,-460r80,0r158,354r155,-354r80,0","w":471},"w":{"d":"573,37r-173,-389r-163,389r-238,-509r80,0r155,356r164,-399r171,399r153,-356r79,0","w":801},"x":{"d":"406,0r-158,-199r-157,199r-93,0r203,-251r-180,-221r91,0r136,169r136,-169r93,0r-181,221r203,251r-93,0","w":497},"y":{"d":"173,267r-80,0r124,-275r-227,-464r82,0r184,384r168,-384r80,0","w":499},"z":{"d":"143,-66r342,0r0,66r-483,0r350,-407r-294,0r0,-65r435,0","w":496},"{":{"d":"180,75v-2,58,37,80,91,74r0,61v-27,0,-76,3,-84,-11v-101,-8,-71,-218,-76,-341v-2,-61,-24,-76,-72,-107r0,-57v48,-30,70,-41,72,-102v5,-123,-25,-335,76,-342v7,-15,57,-10,84,-11r0,62v-51,-4,-91,14,-91,75r0,194v-2,85,-21,119,-78,151r0,4v60,32,78,69,78,158r0,192","w":310},"|":{"d":"151,0r0,-826r70,0r0,826r-70,0","w":372},"}":{"d":"271,-249v-48,31,-69,46,-72,107v-5,123,25,332,-75,341v-9,14,-58,11,-85,11r0,-61v54,6,92,-16,92,-74r0,-192v2,-88,19,-126,77,-158r0,-4v-56,-33,-77,-66,-77,-151r0,-194v2,-60,-38,-79,-92,-75r0,-62v28,1,76,-4,85,11v99,6,70,221,75,342v2,59,25,71,72,102r0,57","w":310},"~":{"d":"206,-330v39,-10,198,81,223,81v31,0,61,-27,90,-80r63,38v-76,109,-126,148,-240,93v-40,-19,-83,-56,-136,-56v-29,0,-59,25,-92,76r-62,-39v13,-17,33,-42,63,-73v28,-28,60,-40,91,-40"},"\u0386":{"d":"62,-556r-48,-26r110,-154r73,32xm584,0r-91,-224r-317,0r-91,224r-83,0r332,-785r333,785r-83,0xm333,-627r-131,335r266,0","w":669},"\u0388":{"d":"77,0r0,-754r375,0r0,71r-296,0r0,242r288,0r0,71r-288,0r0,299r296,0r0,71r-375,0xm-87,-556r-48,-26r110,-153r73,32","w":516},"\u0389":{"d":"577,0r0,-372r-421,0r0,372r-79,0r0,-754r79,0r0,313r421,0r0,-313r80,0r0,754r-80,0xm-87,-556r-49,-26r110,-153r73,32","w":733},"\u038a":{"d":"-86,-556r-49,-26r110,-153r73,32xm77,0r0,-754r79,0r0,754r-79,0","w":233},"\u038c":{"d":"827,-380v0,213,-183,393,-397,393v-213,0,-397,-180,-397,-393v0,-208,188,-387,397,-387v209,0,397,179,397,387xm-58,-556r-48,-26r110,-154r73,32xm746,-380v0,-164,-150,-311,-316,-311v-166,0,-316,147,-316,311v0,168,148,317,316,317v168,0,316,-149,316,-317","w":861},"\u038e":{"d":"334,-330r0,330r-79,0r0,-330r-258,-424r92,0r205,345r206,-345r91,0xm-133,-556r-48,-26r110,-153r73,32","w":590},"\u038f":{"d":"829,-393v0,151,-100,279,-215,323r216,0r0,70r-322,0r0,-97v121,-25,240,-152,240,-294v0,-162,-153,-303,-317,-303v-165,0,-317,141,-317,303v0,132,107,254,226,292r0,99r-308,0r0,-70r214,0v-114,-47,-210,-172,-213,-323v-4,-204,192,-374,398,-374v207,0,398,170,398,374xm-52,-556r-48,-26r110,-154r73,32","w":862},"\u0390":{"d":"307,-647v0,29,-24,53,-53,53v-29,0,-53,-24,-53,-53v0,-29,24,-52,53,-52v29,0,53,23,53,52xm85,-556r-48,-26r110,-153r73,32xm53,-647v0,29,-23,53,-52,53v-29,0,-53,-24,-53,-53v0,-29,24,-52,53,-52v29,0,52,23,52,52xm86,0r0,-473r75,0r0,473r-75,0","w":248},"\u0391":{"d":"584,0r-91,-224r-317,0r-91,224r-83,0r332,-785r333,785r-83,0xm335,-626r-133,334r266,0","w":669},"\u0392":{"d":"254,-754v145,-2,221,66,221,200v0,71,-28,122,-84,153v89,16,154,89,154,191v-1,133,-106,210,-253,210r-215,0r0,-754r177,0xm399,-555v0,-96,-59,-134,-175,-131r-68,0r0,264r70,0v116,2,173,-36,173,-133xm465,-213v0,-112,-80,-146,-221,-142r-88,0r0,287r96,0v137,5,213,-44,213,-145","w":587},"\u0393":{"d":"156,-683r0,683r-79,0r0,-754r355,0r0,71r-276,0","w":464},"\u0394":{"d":"2,0r332,-785r333,785r-665,0xm335,-627r-220,559r439,0","w":669},"\u2206":{"d":"2,0r332,-785r333,785r-665,0xm335,-627r-220,559r439,0","w":669},"\u0395":{"d":"77,0r0,-754r375,0r0,71r-296,0r0,242r288,0r0,71r-288,0r0,299r296,0r0,71r-375,0","w":516},"\u0396":{"d":"147,-71r420,0r0,71r-557,0r439,-683r-391,0r0,-71r528,0","w":596},"\u0397":{"d":"577,0r0,-372r-421,0r0,372r-79,0r0,-754r79,0r0,313r421,0r0,-313r80,0r0,754r-80,0","w":733},"\u0398":{"d":"827,-380v0,213,-183,393,-397,393v-213,0,-397,-180,-397,-393v0,-208,188,-387,397,-387v209,0,397,179,397,387xm740,-439v-24,-133,-156,-252,-310,-252v-154,0,-287,119,-309,252r619,0xm430,-63v163,0,323,-146,312,-309r-624,0v-7,167,146,309,312,309","w":861},"\u0472":{"d":"827,-380v0,213,-183,393,-397,393v-213,0,-397,-180,-397,-393v0,-208,188,-387,397,-387v209,0,397,179,397,387xm740,-439v-24,-133,-156,-252,-310,-252v-154,0,-287,119,-309,252r619,0xm430,-63v163,0,323,-146,312,-309r-624,0v-7,167,146,309,312,309","w":861},"\u0399":{"d":"77,0r0,-754r79,0r0,754r-79,0","w":233},"\u039a":{"d":"511,0r-339,-352r-16,15r0,337r-79,0r0,-754r79,0r0,342r333,-342r103,0r-357,362r380,392r-104,0","w":607},"\u039b":{"d":"584,0r-251,-625r-248,625r-83,0r332,-785r333,785r-83,0","w":669},"\u039c":{"d":"826,0r-121,-574r-251,606r-255,-606r-111,574r-78,0r170,-793r277,645r266,-644v25,102,85,366,181,792r-78,0","w":914},"\u039d":{"d":"156,-608r0,608r-79,0r0,-793r617,655r0,-616r80,0r0,791","w":851},"\u039e":{"d":"57,0r0,-71r202,0r0,-299r-179,0r0,-71r179,0r0,-242r-202,0r0,-71r484,0r0,71r-202,0r0,242r179,0r0,71r-179,0r0,299r202,0r0,71r-484,0","w":598},"\u039f":{"d":"827,-380v0,213,-183,393,-397,393v-213,0,-397,-180,-397,-393v0,-208,188,-387,397,-387v209,0,397,179,397,387xm746,-380v0,-164,-150,-311,-316,-311v-166,0,-316,147,-316,311v0,168,148,317,316,317v168,0,316,-149,316,-317","w":861},"\u03a0":{"d":"577,0r0,-685r-421,0r0,685r-79,0r0,-754r580,0r0,754r-80,0","w":733},"\u03a1":{"d":"485,-545v0,138,-88,212,-240,209r-89,0r0,336r-79,0r0,-754r167,0v154,-4,241,76,241,209xm403,-545v-2,-100,-62,-142,-178,-140r-69,0r0,280v135,9,250,-16,247,-140","w":510},"\u03a3":{"d":"10,0r246,-408r-230,-346r528,0r0,71r-391,0r185,275r-201,337r420,0r0,71r-557,0","w":596},"\u03a4":{"d":"273,-683r0,683r-80,0r0,-683r-188,0r0,-71r456,0r0,71r-188,0","w":467},"\u03a5":{"d":"334,-330r0,330r-79,0r0,-330r-257,-424r91,0r206,345r205,-345r92,0","w":590},"\u03a6":{"d":"823,-382v0,188,-169,344,-354,351r0,31r-80,0r0,-31v-183,-12,-349,-162,-349,-351v0,-185,168,-336,349,-346r0,-26r80,0r0,25v183,9,354,161,354,347xm469,-103v140,-9,272,-133,272,-279v0,-144,-134,-265,-272,-274r0,553xm389,-655v-137,10,-267,129,-267,273v0,144,131,267,267,278r0,-551","w":863},"\u03a7":{"d":"455,0r-178,-320r-179,320r-92,0r225,-389r-208,-365r93,0r161,296r161,-296r93,0r-206,365r222,389r-92,0","w":553},"\u03a8":{"d":"693,-439v14,209,-97,299,-273,306r0,133r-80,0r0,-133v-173,-7,-271,-98,-271,-306r0,-315r80,0v6,153,-23,388,35,478v27,42,91,69,156,71r0,-549r80,0r1,549v141,-13,192,-74,192,-250r0,-299r80,0r0,315","w":761},"\u0470":{"d":"693,-439v14,209,-97,299,-273,306r0,133r-80,0r0,-133v-173,-7,-271,-98,-271,-306r0,-315r80,0v6,153,-23,388,35,478v27,42,91,69,156,71r0,-549r80,0r1,549v141,-13,192,-74,192,-250r0,-299r80,0r0,315","w":761},"\u03a9":{"d":"829,-393v0,151,-100,279,-215,323r216,0r0,70r-322,0r0,-97v121,-25,240,-152,240,-294v0,-162,-153,-303,-317,-303v-165,0,-317,141,-317,303v0,132,107,254,226,292r0,99r-308,0r0,-70r214,0v-114,-47,-210,-172,-213,-323v-4,-204,192,-374,398,-374v207,0,398,170,398,374","w":862},"\u2126":{"d":"829,-393v0,151,-100,279,-215,323r216,0r0,70r-322,0r0,-97v121,-25,240,-152,240,-294v0,-162,-153,-303,-317,-303v-165,0,-317,141,-317,303v0,132,107,254,226,292r0,99r-308,0r0,-70r214,0v-114,-47,-210,-172,-213,-323v-4,-204,192,-374,398,-374v207,0,398,170,398,374","w":862},"\u03aa":{"d":"270,-929v0,29,-24,53,-53,53v-29,0,-53,-24,-53,-53v0,-28,25,-52,53,-52v28,0,53,24,53,52xm69,-929v0,29,-24,53,-53,53v-29,0,-52,-24,-52,-53v0,-28,24,-52,52,-52v28,0,53,24,53,52xm77,0r0,-754r79,0r0,754r-79,0","w":233},"\u03ab":{"d":"448,-929v0,29,-24,53,-53,53v-29,0,-52,-24,-52,-53v0,-28,24,-52,52,-52v28,0,53,24,53,52xm247,-929v0,29,-23,53,-52,53v-29,0,-53,-24,-53,-53v0,-28,25,-52,53,-52v28,0,52,24,52,52xm334,-330r0,330r-79,0r0,-330r-257,-424r91,0r206,344r205,-344r92,0","w":590},"\u03ac":{"d":"265,-556r-48,-26r110,-153r73,32xm264,-484v73,1,145,37,173,87r0,-76r75,0r0,473r-75,0r0,-75v-37,57,-95,86,-174,86v-137,0,-234,-106,-234,-244v0,-137,97,-253,235,-251xm441,-232v0,-100,-71,-185,-168,-185v-101,0,-168,83,-168,189v0,99,70,172,169,172v95,0,167,-80,167,-176","w":584},"\u03ad":{"d":"238,-556r-48,-26r110,-153r73,32xm125,-142v0,61,66,91,134,91v66,0,121,-23,166,-69v6,15,-1,57,1,74v-111,93,-384,84,-378,-98v2,-53,38,-99,81,-113v-45,-13,-68,-43,-68,-89v0,-147,251,-174,361,-85r0,81v-74,-62,-159,-90,-246,-48v-26,13,-38,31,-38,52v0,41,41,61,122,61r77,0r0,63r-117,0v-63,0,-95,27,-95,80","w":467},"\u03ae":{"d":"212,-556r-48,-26r110,-153r73,32xm290,-484v119,1,163,70,162,197r0,287r-75,0r0,-273v1,-100,-18,-147,-104,-147v-84,0,-126,61,-126,184r0,236r-74,0r0,-473r74,0r0,71v32,-55,80,-82,143,-82","w":524},"\u03af":{"d":"116,-556r-48,-26r110,-153r73,32xm86,0r0,-473r75,0r0,473r-75,0","w":248},"\u03b0":{"d":"433,-647v0,29,-24,53,-53,53v-29,0,-53,-24,-53,-53v0,-29,24,-52,53,-52v29,0,53,23,53,52xm211,-556r-48,-26r110,-153r73,32xm179,-647v0,29,-23,53,-52,53v-29,0,-53,-24,-53,-53v0,-29,24,-52,53,-52v29,0,52,23,52,52xm443,-189v3,138,-64,200,-188,200v-125,0,-189,-62,-189,-200r0,-284r75,0r0,264v-1,105,22,156,114,156v91,0,114,-52,114,-156r0,-264r74,0r0,284","w":509},"\u03b1":{"d":"264,-484v74,1,144,39,173,88r0,-76r75,0r0,472r-75,0r0,-75v-37,57,-95,86,-174,86v-136,0,-234,-106,-234,-243v0,-137,97,-255,235,-252xm441,-232v0,-100,-71,-185,-168,-185v-101,0,-168,83,-168,189v0,99,70,172,169,172v97,0,167,-81,167,-176","w":584},"\u03b2":{"d":"371,-494v84,29,150,130,150,242v0,141,-96,263,-232,263v-72,0,-125,-30,-160,-89r0,78r-76,0r1,-638v-2,-110,90,-197,201,-197v110,0,201,81,201,190v0,65,-28,116,-85,151xm280,-56v101,0,165,-90,165,-196v0,-112,-75,-206,-182,-205r-86,0r1,-60v72,2,124,4,168,-35v84,-76,23,-217,-91,-217v-75,0,-127,62,-126,135r0,396v-1,105,52,182,151,182","w":557},"\u03b3":{"d":"272,-30r0,297r-74,0r0,-301r-198,-438r80,0r157,355r154,-355r80,0","w":471},"\u03b4":{"d":"537,-241v4,142,-110,254,-252,254v-135,0,-251,-113,-251,-249v0,-119,82,-224,185,-241v-68,-41,-102,-93,-102,-155v0,-120,87,-200,217,-199v42,1,79,8,111,22r6,77v-92,-71,-265,-26,-255,89v9,103,127,132,212,188v73,49,126,112,129,214xm462,-236v0,-95,-82,-183,-180,-183v-97,0,-172,86,-172,183v0,95,77,182,172,182v100,0,180,-82,180,-182","w":570},"\u03b5":{"d":"125,-141v0,59,66,90,134,90v66,0,121,-23,166,-69v6,15,-1,57,1,74v-111,93,-384,84,-378,-98v2,-52,38,-98,81,-112v-45,-15,-68,-45,-68,-90v0,-146,253,-172,361,-85r0,82v-69,-61,-153,-91,-246,-48v-26,12,-38,31,-38,52v1,74,116,58,199,60r0,63r-117,0v-63,0,-95,27,-95,81","w":467},"\u03b6":{"d":"143,-66r342,0r0,66r-483,0r350,-407r-294,0r0,-65r435,0","w":496},"\u03b7":{"d":"290,-484v120,2,162,70,162,198r0,286r-75,0r0,-273v1,-99,-17,-146,-104,-146v-84,0,-126,61,-126,183r0,236r-74,0r0,-472r74,0r0,70v32,-55,80,-82,143,-82","w":524},"\u03b8":{"d":"459,-105v-85,149,-282,153,-364,-2v-115,-217,-77,-718,180,-718v83,0,144,41,188,119v75,133,72,468,-4,601xm399,-668v-57,-119,-189,-123,-245,2v-25,56,-42,124,-47,209r339,0v-5,-88,-21,-158,-47,-211xm446,-392r-340,0v-1,92,16,169,43,234v57,139,198,135,256,4v26,-60,44,-143,41,-238","w":553},"\u0473":{"d":"459,-105v-85,149,-282,153,-364,-2v-115,-217,-77,-718,180,-718v83,0,144,41,188,119v75,133,72,468,-4,601xm399,-668v-57,-119,-189,-123,-245,2v-25,56,-42,124,-47,209r339,0v-5,-88,-21,-158,-47,-211xm446,-392r-340,0v-1,92,16,169,43,234v57,139,198,135,256,4v26,-60,44,-143,41,-238","w":553},"\u03b9":{"d":"86,0r0,-472r75,0r0,472r-75,0","w":248},"\u03ba":{"d":"389,0r-223,-225r-19,26r0,199r-74,0r0,-472r74,0r0,191r188,-191r99,0r-207,207r263,265r-101,0","w":479},"\u03bb":{"d":"424,0r-168,-393r-184,393r-82,0r228,-472r-152,-348r79,0r359,820r-80,0","w":499},"\u03bc":{"d":"142,-199v-1,100,18,147,104,147v84,0,126,-61,126,-184r0,-236r74,0r0,473r-74,0r0,-71v-38,81,-158,108,-230,55r0,282r-75,0r0,-739r75,0r0,273","w":524},"\u03bd":{"d":"238,38r-26,-50r-213,-460r80,0r158,354r155,-354r80,0","w":471},"\u03be":{"d":"39,-251v0,-97,57,-190,131,-216v-125,-47,-124,-223,-36,-308v63,-61,181,-74,269,-36r6,77v-74,-46,-162,-49,-223,5v-58,51,-63,139,-6,196v49,50,123,40,212,41r0,60r-111,0v-101,-2,-172,79,-171,181v1,140,133,199,293,187r0,221r-68,0r0,-156v-164,1,-296,-95,-296,-252","w":429},"\u03bf":{"d":"541,-236v0,140,-117,247,-257,247v-137,0,-255,-110,-255,-246v0,-139,116,-249,255,-249v140,0,257,108,257,248xm465,-235v0,-102,-80,-182,-183,-182v-99,0,-176,84,-176,182v0,95,79,179,176,179v101,0,183,-79,183,-179","w":570},"\u03c0":{"d":"377,0r0,-407r-230,0r0,407r-74,0r0,-472r379,0r0,472r-75,0","w":524},"\u03c1":{"d":"534,-232v0,138,-97,244,-233,244v-77,0,-136,-28,-175,-85r0,340r-75,0r0,-491v-5,-138,105,-259,238,-259v142,0,245,112,245,251xm458,-232v0,-98,-68,-185,-168,-185v-96,0,-165,93,-165,189v0,100,67,173,167,173v94,0,166,-81,166,-177","w":584},"\u03c2":{"d":"358,-142v1,149,-209,195,-325,112r13,-69v43,32,89,48,136,48v75,0,146,-96,69,-142v-68,-40,-201,-52,-201,-159v0,-103,125,-166,221,-114v24,12,43,29,56,49r-45,41v-29,-67,-148,-60,-157,16v-6,56,164,95,178,115v37,25,55,60,55,103","w":403},"\u03c3":{"d":"29,-229v0,-137,123,-243,261,-243r269,0r0,65r-107,0v59,43,89,102,89,177v0,138,-118,241,-257,241v-135,0,-255,-106,-255,-240xm465,-229v0,-99,-83,-178,-184,-178v-96,0,-176,84,-176,178v0,93,81,175,176,175v100,0,184,-77,184,-175","w":600},"\u03c4":{"d":"196,-407r0,407r-75,0r0,-407r-100,0r0,-65r278,0r0,65r-103,0","w":320},"\u03c5":{"d":"443,-189v3,138,-64,200,-188,200v-125,0,-189,-62,-189,-200r0,-283r75,0r0,263v-1,105,22,156,114,156v91,0,114,-52,114,-156r0,-263r74,0r0,283","w":509},"\u03c6":{"d":"642,-236v0,143,-122,251,-265,248r0,255r-75,0r-1,-255v-142,4,-268,-109,-268,-248v0,-129,89,-224,205,-242r12,66v-80,16,-141,83,-141,177v0,100,90,180,193,180r0,-428v55,0,84,0,87,1v136,0,253,107,253,246xm565,-235v0,-103,-85,-184,-188,-181r1,361v103,2,187,-77,187,-180","w":674},"\u03c7":{"d":"406,0r-158,-199r-157,199r-93,0r203,-251r-180,-221r91,0r136,169r136,-169r93,0r-181,221r203,251r-93,0","w":497},"\u03c8":{"d":"588,-201v1,129,-89,218,-223,213r0,255r-75,0r0,-255v-137,4,-224,-80,-224,-211r0,-273r72,0r0,264v-1,90,60,159,152,155r0,-419r75,0r0,419v90,2,151,-66,151,-155r0,-264r72,0r0,271","w":654},"\u0471":{"d":"588,-201v1,129,-89,218,-223,213r0,255r-75,0r0,-255v-137,4,-224,-80,-224,-211r0,-273r72,0r0,264v-1,90,60,159,152,155r0,-419r75,0r0,419v90,2,151,-66,151,-155r0,-264r72,0r0,271","w":654},"\u03c9":{"d":"688,-235v1,130,-68,237,-192,237v-62,0,-107,-26,-134,-79v-27,53,-74,79,-139,79v-185,0,-246,-260,-142,-393v38,-49,91,-79,158,-90r0,67v-81,15,-131,87,-132,179v-1,87,41,174,119,173v71,0,105,-65,105,-143r0,-170r69,0v7,126,-36,313,93,313v75,0,120,-90,119,-173v-1,-92,-52,-164,-132,-179r0,-67v120,16,207,114,208,246","w":720},"\u03ca":{"d":"277,-647v0,29,-23,53,-52,53v-29,0,-53,-24,-53,-53v0,-29,24,-52,53,-52v29,0,52,23,52,52xm76,-647v0,29,-23,53,-52,53v-29,0,-53,-24,-53,-53v0,-29,24,-52,53,-52v29,0,52,23,52,52xm86,0r0,-473r75,0r0,473r-75,0","w":248},"\u03cb":{"d":"405,-647v0,29,-24,53,-53,53v-29,0,-53,-24,-53,-53v0,-29,24,-52,53,-52v29,0,53,23,53,52xm204,-647v0,29,-24,53,-53,53v-29,0,-53,-24,-53,-53v0,-29,24,-52,53,-52v29,0,53,23,53,52xm443,-189v3,138,-64,200,-188,200v-125,0,-189,-62,-189,-200r0,-284r75,0r0,264v-1,105,22,156,114,156v91,0,114,-52,114,-156r0,-264r74,0r0,284","w":509},"\u03cc":{"d":"281,-556r-48,-26r110,-153r73,32xm541,-236v0,140,-117,247,-257,247v-137,0,-255,-111,-255,-247v0,-137,118,-248,255,-248v140,0,257,108,257,248xm465,-236v0,-101,-82,-181,-184,-181v-97,0,-176,85,-176,181v0,96,79,180,176,180v102,0,184,-79,184,-180","w":570},"\u03cd":{"d":"237,-556r-49,-26r111,-153r73,32xm443,-189v3,138,-64,200,-188,200v-125,0,-189,-62,-189,-200r0,-284r75,0r0,264v-1,105,22,156,114,156v91,0,114,-52,114,-156r0,-264r74,0r0,284","w":509},"\u03ce":{"d":"341,-556r-48,-26r110,-153r73,32xm688,-235v0,130,-68,237,-192,237v-62,0,-107,-26,-134,-79v-27,53,-74,79,-139,79v-185,0,-246,-261,-142,-394v38,-49,91,-79,158,-90r0,67v-78,16,-132,87,-132,180v0,87,42,174,119,173v71,0,105,-65,105,-144r0,-169r69,0v7,126,-35,313,93,313v74,0,119,-91,119,-173v0,-93,-54,-164,-132,-180r0,-67v120,16,208,114,208,247","w":720},"\u00a0":{"w":317}}});
/*!
 * The following copyright notice may not be removed under any circumstances.
 * 
 * Copyright:
 * Copyright © 1987, 1991, 1993, 2002 Adobe Systems Incorporated.  All Rights
 * Reserved.
 * 
 * Trademark:
 * Futura is a registered trademark of Bauer Types, S.A.
 * 
 * Full name:
 * FuturaStd-Heavy
 * 
 * Designer:
 * Paul Renner
 * 
 * Vendor URL:
 * http://www.adobe.com/type
 * 
 * License information:
 * http://www.adobe.com/type/legal.html
 */
Cufon.registerFont({"w":578,"face":{"font-family":"Futura","font-weight":650,"font-stretch":"normal","units-per-em":"1000","panose-1":"2 11 7 2 2 2 4 2 2 3","ascent":"825","descent":"-175","x-height":"16","bbox":"-22 -860 991 262","underline-thickness":"50","underline-position":"-50","stemh":"124","stemv":"140","unicode-range":"U+0020-U+03C0"},"glyphs":{" ":{"w":289},"!":{"d":"162,-158v49,0,89,39,89,88v0,49,-40,90,-89,90v-49,0,-89,-41,-89,-90v0,-49,40,-88,89,-88xm91,-217r0,-537r142,0r0,537r-142,0","w":325},"\"":{"d":"88,-754r120,0r-18,328r-84,0xm280,-754r120,0r-18,328r-84,0","w":488},"#":{"d":"211,-726r106,0r-39,203r101,0r39,-203r105,0r-39,203r80,0r0,113r-98,0r-24,124r94,0r0,113r-118,0r-33,173r-106,0r33,-173r-101,0r-33,173r-106,0r33,-173r-91,0r0,-113r113,0r24,-124r-96,0r0,-113r117,0xm257,-410r-24,124r102,0r26,-124r-104,0"},"$":{"d":"268,100r0,-95v-105,-12,-164,-56,-214,-148r89,-86v28,55,73,107,140,107v58,0,97,-45,97,-101v0,-70,-71,-92,-142,-126v-71,-34,-142,-78,-142,-193v0,-111,64,-193,172,-213r0,-93r73,0r0,94v67,8,116,33,159,86r-67,95v-27,-35,-66,-61,-111,-61v-44,0,-85,33,-85,79v0,61,72,82,143,117v72,35,143,84,143,203v0,114,-67,212,-182,235r0,100r-73,0"},"%":{"d":"184,-774v102,0,179,75,179,179v0,103,-76,178,-179,178v-103,0,-179,-75,-179,-178v0,-104,77,-179,179,-179xm184,-693v-104,3,-106,192,0,195v105,-3,105,-192,0,-195xm587,-337v102,0,179,75,179,179v0,103,-76,178,-179,178v-103,0,-179,-75,-179,-178v0,-104,77,-179,179,-179xm587,-256v-104,3,-106,192,0,195v105,-3,105,-192,0,-195xm553,-780r68,34r-404,777r-69,-35","w":772},"&":{"d":"383,-177r-117,-157v-40,30,-85,66,-85,121v0,48,40,101,90,101v46,0,81,-35,112,-65xm265,-599v0,46,35,76,54,107v31,-25,67,-54,67,-103v0,-35,-20,-74,-59,-74v-40,0,-62,34,-62,70xm531,0r-61,-76v-62,54,-131,96,-216,96v-127,0,-221,-93,-221,-220v0,-106,75,-181,154,-227v-35,-49,-61,-99,-61,-160v0,-112,84,-187,192,-187v109,0,193,73,193,186v0,83,-60,140,-124,182r105,135r76,-97r93,87r-81,109r130,172r-179,0","w":702},"(":{"d":"175,-832r86,58v-60,136,-82,302,-82,450v0,143,22,318,82,449r-86,59v-75,-148,-101,-349,-101,-514v0,-162,29,-356,101,-502","w":271},")":{"d":"10,-774r86,-58v72,146,101,340,101,502v0,165,-26,366,-101,514r-86,-59v112,-280,111,-619,0,-899","w":271},"*":{"d":"166,-754r86,0r-2,101r77,-52r36,67r-81,50r81,50r-36,67r-77,-52r2,99r-86,0r3,-99r-78,52r-36,-67r79,-50r-80,-50r35,-67r80,52","w":417},"+":{"d":"230,-512r118,0r0,197r197,0r0,118r-197,0r0,197r-118,0r0,-197r-197,0r0,-118r197,0r0,-197"},",":{"d":"135,-156r128,14r-144,301r-93,-11","w":289},"-":{"d":"43,-378r244,0r0,115r-244,0r0,-115","w":330},".":{"d":"145,-158v49,0,89,39,89,88v0,49,-40,90,-89,90v-49,0,-89,-41,-89,-90v0,-49,40,-88,89,-88","w":289},"\/":{"d":"405,-848r97,35r-368,975r-97,-35","w":539},"0":{"d":"289,-774v202,0,270,236,270,398v0,161,-70,396,-270,396v-200,0,-270,-235,-270,-396v0,-162,68,-398,270,-398xm289,-646v-104,0,-126,192,-126,268v0,75,22,270,126,270v105,0,126,-195,126,-270v0,-76,-21,-268,-126,-268"},"1":{"d":"244,-626r-99,0r0,-128r246,0r0,754r-147,0r0,-626"},"2":{"d":"289,-128r247,0r0,128r-508,0r192,-242v53,-66,164,-197,164,-282v0,-54,-35,-122,-97,-122v-66,0,-96,72,-93,129r-156,0v10,-145,93,-257,248,-257v138,0,245,105,245,243v0,176,-155,289,-242,403"},"3":{"d":"199,-557r-140,0v13,-130,96,-217,231,-217v130,0,217,83,217,213v0,58,-21,123,-72,157v69,30,97,115,97,184v0,148,-107,240,-251,240v-138,0,-242,-103,-250,-238r148,0v3,60,43,110,108,110v66,0,101,-62,101,-121v-1,-69,-49,-137,-133,-118r0,-105v74,5,112,-35,112,-104v0,-50,-31,-96,-86,-96v-52,0,-80,49,-82,95"},"4":{"d":"473,-251r80,0r0,118r-80,0r0,133r-138,0r0,-133r-332,0r0,-66r336,-569r134,0r0,517xm335,-251r0,-300r-2,0r-159,300r161,0"},"5":{"d":"499,-626r-224,0r-26,115v173,-20,281,107,281,260v0,162,-113,271,-274,271v-89,0,-165,-33,-224,-100r44,-126v39,56,101,98,170,98v82,0,135,-71,135,-149v0,-82,-64,-150,-147,-150v-43,0,-90,20,-121,49r-23,0r81,-396r328,0r0,128"},"6":{"d":"313,-785r108,78r-155,219v158,-42,285,90,285,242v0,155,-111,266,-266,266v-149,0,-264,-105,-264,-256v0,-90,43,-179,92,-252xm284,-100v156,0,156,-281,0,-281v-74,0,-120,73,-120,141v0,67,46,140,120,140"},"7":{"d":"359,-626r-316,0r0,-128r539,0r-413,774r-121,-69"},"8":{"d":"289,-333v-126,2,-127,228,0,231v127,-2,126,-229,0,-231xm167,-393v-62,-31,-99,-97,-99,-166v0,-129,97,-215,221,-215v124,0,221,86,221,215v0,69,-37,135,-99,166v82,31,122,105,122,192v0,136,-117,221,-244,221v-127,0,-244,-85,-244,-221v0,-87,40,-161,122,-192xm289,-664v-115,4,-114,208,0,211v114,-3,115,-207,0,-211"},"9":{"d":"264,32r-108,-79r155,-219v-156,44,-285,-89,-285,-241v0,-156,111,-267,266,-267v149,0,264,105,264,257v0,90,-43,179,-92,252xm293,-654v-156,0,-157,282,0,282v74,0,120,-73,120,-141v0,-68,-46,-141,-120,-141"},":":{"d":"145,-158v49,0,89,39,89,88v0,49,-40,90,-89,90v-49,0,-89,-41,-89,-90v0,-49,40,-88,89,-88xm145,-518v49,0,89,39,89,88v0,49,-40,90,-89,90v-49,0,-89,-41,-89,-90v0,-49,40,-88,89,-88","w":289},";":{"d":"125,-156r128,14r-144,301r-93,-11xm185,-518v49,0,89,39,89,88v0,49,-40,90,-89,90v-49,0,-89,-41,-89,-90v0,-49,40,-88,89,-88","w":289},"<":{"d":"33,-196r0,-120r512,-182r0,126r-325,115r0,2r325,115r0,126"},"=":{"d":"33,-315r0,-118r512,0r0,118r-512,0xm33,-79r0,-118r512,0r0,118r-512,0"},">":{"d":"545,-316r0,120r-512,182r0,-126r325,-115r0,-2r-325,-115r0,-126"},"?":{"d":"148,-257r0,-199v84,18,163,-25,164,-108v0,-40,-23,-88,-69,-88v-49,0,-70,45,-67,94r-146,0v-6,-121,91,-216,212,-216v123,0,215,92,215,215v0,98,-65,184,-161,206r-8,96r-140,0xm220,-158v49,0,89,39,89,88v0,49,-40,90,-89,90v-49,0,-89,-41,-89,-90v0,-49,40,-88,89,-88","w":487},"@":{"d":"590,-372v10,-82,-33,-121,-102,-121v-81,0,-124,73,-124,147v0,60,30,108,92,108v89,0,125,-61,134,-134xm505,-774v179,0,348,143,347,320v0,84,-22,162,-62,214v-48,64,-106,90,-154,88v-28,-1,-48,-24,-54,-62v-34,34,-76,62,-136,62v-88,0,-168,-83,-168,-187v0,-122,80,-240,204,-240v51,0,93,19,133,72r14,-63r71,0r-50,260v-7,34,-20,86,14,86v46,0,102,-93,102,-194v0,-169,-111,-270,-264,-270v-168,0,-293,136,-293,311v0,185,145,311,316,311v83,0,143,-16,180,-43r75,60v-71,39,-138,69,-269,69v-215,0,-388,-168,-388,-397v0,-226,169,-397,382,-397","w":975},"A":{"d":"470,-159r-262,0r-62,159r-155,0r294,-774r114,0r286,774r-157,0xm429,-279r-94,-274r-2,0r-83,274r179,0","w":676},"B":{"d":"201,-328r0,210v95,1,178,2,178,-108v0,-107,-91,-102,-178,-102xm54,0r0,-754r183,0v140,0,226,55,226,205v0,54,-19,116,-66,146v89,16,129,106,129,189v0,148,-104,214,-241,214r-231,0xm201,-636r0,196v81,2,126,-14,125,-99v-1,-85,-51,-100,-125,-97","w":553},"C":{"d":"558,-730r0,176v-41,-50,-103,-80,-166,-80v-141,0,-222,130,-222,260v0,127,84,254,221,254v63,0,126,-33,167,-80r0,175v-55,26,-110,45,-171,45v-212,0,-369,-183,-369,-391v0,-214,151,-403,372,-403v59,0,117,16,168,44","w":601},"D":{"d":"54,0r0,-754r210,0v218,0,364,163,364,378v0,212,-150,376,-365,376r-209,0xm201,-626r0,498v192,8,275,-92,275,-249v0,-172,-93,-256,-275,-249","w":646},"E":{"d":"444,-626r-243,0r0,166r234,0r0,128r-234,0r0,204r243,0r0,128r-390,0r0,-754r390,0r0,128","w":488},"F":{"d":"428,-626r-227,0r0,166r213,0r0,128r-213,0r0,332r-147,0r0,-754r374,0r0,128","w":463,"k":{"A":60,",":150,".":150}},"G":{"d":"395,-401r325,0v5,228,-103,421,-343,421v-220,0,-359,-186,-359,-394v0,-215,143,-400,368,-400v128,0,240,65,298,180r-130,70v-30,-68,-94,-120,-172,-120v-142,0,-212,145,-212,270v0,125,71,264,213,264v92,0,169,-80,172,-171r-160,0r0,-120","w":739},"H":{"d":"201,-457r272,0r0,-297r147,0r0,754r-147,0r0,-337r-272,0r0,337r-147,0r0,-754r147,0r0,297","w":674},"I":{"d":"201,-754r0,754r-147,0r0,-754r147,0","w":254},"J":{"d":"339,-754r0,498v0,70,-3,129,-44,191v-71,108,-237,109,-317,14r94,-108v7,22,33,49,57,49v72,0,63,-122,63,-171r0,-473r147,0","w":389},"K":{"d":"203,-436r233,-318r181,0r-286,348r302,406r-189,0r-241,-339r-2,0r0,339r-147,0r0,-754r147,0r0,318r2,0","w":620},"L":{"d":"201,-754r0,626r208,0r0,128r-355,0r0,-754r147,0","w":402,"k":{"T":30,"V":40,"W":30,"y":20,"Y":40}},"M":{"d":"677,0r-60,-468r-2,0r-171,478r-51,0r-165,-478r-2,0r-67,468r-148,0r127,-774r104,0r186,497r178,-497r106,0r113,774r-148,0","w":836},"N":{"d":"54,0r0,-774r106,0r397,527r2,0r0,-507r147,0r0,769r-106,0r-397,-527r-2,0r0,512r-147,0","w":759},"O":{"d":"764,-378v0,222,-143,398,-373,398v-230,0,-373,-176,-373,-398v0,-224,148,-396,373,-396v225,0,373,172,373,396xm612,-384v0,-122,-82,-245,-221,-245v-139,0,-221,123,-221,245v0,116,58,259,221,259v163,0,221,-143,221,-259","w":782},"P":{"d":"201,-282r0,282r-147,0r0,-754r200,0v158,0,261,63,261,234v0,188,-119,252,-314,238xm201,-632r0,228v101,2,164,-7,164,-117v0,-107,-69,-112,-164,-111","w":528,"k":{"A":80,",":135,".":135}},"Q":{"d":"778,17r-148,15r-52,-63v-51,34,-118,51,-187,51v-220,0,-373,-182,-373,-398v0,-211,153,-396,373,-396v220,0,373,185,373,396v0,102,-31,198,-89,273xm498,-302r67,76v110,-151,17,-408,-174,-408v-285,0,-301,513,0,512v27,0,59,-12,79,-25r-124,-143","w":782},"R":{"d":"351,-318r213,318r-178,0r-183,-304r-2,0r0,304r-147,0r0,-754r199,0v149,0,252,66,252,227v0,96,-53,192,-154,209xm201,-634r0,227v92,2,157,-17,157,-116v-1,-101,-68,-113,-157,-111","w":558,"k":{"T":20,"Y":20}},"S":{"d":"478,-690r-69,102v-28,-38,-64,-62,-113,-62v-47,0,-92,36,-92,85v0,127,299,74,299,327v0,151,-94,258,-248,258v-104,0,-180,-60,-232,-147r95,-93v20,58,73,110,136,110v60,0,97,-51,97,-109v0,-78,-72,-99,-131,-123v-97,-39,-168,-89,-168,-206v0,-125,93,-226,220,-226v67,0,160,33,206,84","w":526},"T":{"d":"299,-626r0,626r-147,0r0,-626r-152,0r0,-128r451,0r0,128r-152,0","w":451,"k":{"w":80,"y":80,"A":80,",":100,".":100,"u":100,"-":80,"a":100,"c":100,"e":100,"o":100,"r":80,"s":100,":":100,";":100}},"U":{"d":"50,-303r0,-451r147,0r0,422v0,93,8,224,133,224v125,0,133,-131,133,-224r0,-422r147,0r0,451v0,184,-78,323,-280,323v-202,0,-280,-139,-280,-323","w":660},"V":{"d":"144,-754r181,508r2,0r168,-508r158,0r-293,774r-86,0r-288,-774r158,0","w":639,"k":{"y":20,"A":120,",":160,".":120,"u":60,"-":30,"a":80,"e":80,"o":80,"r":40,":":80,";":80}},"W":{"d":"140,-754r152,514r2,0r150,-524r87,0r156,524r2,0r148,-514r154,0r-255,769r-108,0r-150,-493r-2,0r-142,493r-108,0r-240,-769r154,0","w":977,"k":{"A":100,",":80,".":80,"u":40,"a":60,"e":60,"o":60,"r":20,":":80,";":80}},"X":{"d":"233,-399r-203,-355r174,0r120,234r110,-234r174,0r-209,355r232,399r-171,0r-152,-276r-144,276r-172,0","w":623},"Y":{"d":"218,-346r-234,-408r171,0r132,262r144,-262r172,0r-238,408r0,346r-147,0r0,-346","w":587,"k":{"v":40,"A":100,",":100,".":100,"u":60,"-":60,"a":100,"e":100,"o":100,":":100,";":100,"p":80,"q":100}},"Z":{"d":"239,-128r313,0r0,128r-547,0r332,-626r-281,0r0,-128r514,0","w":575},"[":{"d":"151,-754r0,754r92,0r0,91r-198,0r0,-936r198,0r0,91r-92,0","w":288},"\\":{"d":"30,-848r112,0r368,848r-112,0","w":539},"]":{"d":"137,0r0,-754r-92,0r0,-91r198,0r0,936r-198,0r0,-91r92,0","w":288},"^":{"d":"33,-329r193,-425r124,0r195,425r-129,0r-127,-283r-127,283r-129,0"},"_":{"d":"500,75r0,50r-500,0r0,-50r500,0","w":500},"a":{"d":"514,-491r0,491r-138,0v-2,-14,4,-35,-2,-45v-30,39,-82,61,-133,61v-144,0,-226,-131,-226,-264v0,-130,83,-259,224,-259v51,0,103,22,137,62r0,-46r138,0xm273,-108v72,0,117,-72,117,-138v0,-66,-45,-137,-117,-137v-152,0,-152,275,0,275","w":565},"b":{"d":"50,0r0,-848r140,0r0,402v32,-38,84,-61,136,-61v139,0,224,130,224,259v0,134,-82,264,-227,264v-52,0,-102,-25,-133,-62r0,46r-140,0xm292,-108v151,-3,153,-272,0,-275v-152,3,-152,272,0,275","w":565},"c":{"d":"384,-476r0,135v-30,-30,-60,-48,-103,-48v-79,0,-124,74,-124,146v0,77,49,141,129,141v38,0,73,-19,98,-47r0,135v-38,21,-78,30,-121,30v-145,0,-248,-119,-248,-260v0,-186,195,-328,369,-232","w":421},"d":{"d":"375,0v-2,-14,4,-36,-2,-46v-29,40,-81,62,-132,62v-144,0,-226,-131,-226,-264v0,-130,83,-259,224,-259v53,0,102,25,136,61r0,-402r140,0r0,848r-140,0xm273,-108v151,-3,153,-272,0,-275v-152,3,-152,272,0,275","w":565},"e":{"d":"486,-223r-323,0v0,62,24,132,97,132v46,0,75,-28,94,-67r129,21v-34,98,-120,153,-223,153v-152,0,-245,-108,-245,-257v0,-149,79,-266,238,-266v167,0,237,124,233,284xm167,-310r187,0v-7,-50,-39,-99,-93,-99v-56,0,-87,48,-94,99","w":501},"f":{"d":"195,-373r0,373r-140,0r0,-373r-47,0r0,-118r47,0v-7,-188,-5,-366,185,-369v23,0,46,5,67,16r0,125v-18,-9,-36,-17,-57,-17v-62,0,-55,81,-55,121r0,124r112,0r0,118r-112,0","w":303,"k":{"f":-20}},"g":{"d":"512,-491r0,461v0,160,-54,292,-238,292v-120,0,-241,-73,-248,-204r148,0v7,52,44,86,97,86v109,-1,105,-108,99,-193v-30,40,-82,65,-134,65v-144,0,-221,-126,-221,-258v0,-135,82,-265,228,-265v51,0,98,28,129,63r0,-47r140,0xm273,-108v152,-3,152,-272,0,-275v-151,3,-153,272,0,275","w":562},"h":{"d":"50,-848r140,0r0,398r2,0v29,-40,78,-57,128,-57v132,0,170,93,170,207r0,300r-140,0r0,-260v0,-59,3,-135,-76,-135v-83,0,-84,93,-84,152r0,243r-140,0r0,-848","w":540},"i":{"d":"197,-491r0,491r-140,0r0,-491r140,0xm127,-780v46,0,83,38,83,83v0,46,-37,83,-83,83v-46,0,-83,-37,-83,-83v0,-45,37,-83,83,-83","w":253},"j":{"d":"197,-491r0,753r-140,0r0,-753r140,0xm127,-780v46,0,83,38,83,83v0,46,-37,83,-83,83v-46,0,-83,-37,-83,-83v0,-45,37,-83,83,-83","w":253},"k":{"d":"190,-848r0,537r2,0r147,-180r182,0r-207,216r223,275r-184,0r-161,-209r-2,0r0,209r-140,0r0,-848r140,0","w":526},"l":{"d":"190,-848r0,848r-140,0r0,-848r140,0","w":239},"m":{"d":"190,-491v2,14,-4,34,2,44v63,-88,210,-77,261,17v30,-48,86,-77,143,-77v125,0,156,94,156,201r0,306r-140,0r0,-258v0,-48,3,-137,-66,-137v-76,0,-75,103,-75,154r0,241r-140,0r0,-249v0,-48,6,-146,-67,-146v-78,0,-74,102,-74,154r0,241r-140,0r0,-491r140,0","w":802},"n":{"d":"190,-491v2,14,-4,35,2,45v29,-44,78,-61,128,-61v132,0,170,93,170,207r0,300r-140,0r0,-260v0,-59,3,-135,-76,-135v-83,0,-84,93,-84,152r0,243r-140,0r0,-491r140,0","w":540},"o":{"d":"274,-507v153,0,258,109,258,262v0,152,-104,261,-258,261v-154,0,-258,-109,-258,-261v0,-153,105,-262,258,-262xm274,-383v-151,2,-153,273,0,275v152,-2,152,-273,0,-275","w":548},"p":{"d":"190,-491r0,45v32,-38,84,-61,136,-61v139,0,224,130,224,259v0,134,-82,264,-227,264v-52,0,-102,-25,-133,-62r0,308r-140,0r0,-753r140,0xm292,-108v151,-3,153,-272,0,-275v-152,3,-152,272,0,275","w":565},"q":{"d":"273,-108v151,-3,153,-272,0,-275v-152,3,-152,272,0,275xm515,-491r0,753r-140,0r0,-308r-2,0v-29,40,-81,62,-132,62v-144,0,-226,-131,-226,-264v0,-130,83,-259,224,-259v53,0,102,25,136,61r0,-45r140,0","w":565},"r":{"d":"190,-491v2,16,-4,39,2,51v36,-59,108,-84,180,-55r-17,130v-17,-12,-37,-18,-58,-18v-97,0,-107,86,-107,162r0,221r-140,0r0,-491r140,0","w":367,"k":{"v":-60,"w":-40,"y":-60,"f":-20,",":100,".":100,"m":-8,"n":-8,"t":-40,"u":-20,"x":-40,"z":-20,"-":-20}},"s":{"d":"362,-456r-60,81v-20,-19,-46,-34,-74,-34v-23,0,-46,18,-46,42v0,36,51,46,101,68v51,22,101,56,101,141v0,109,-88,174,-191,174v-66,0,-130,-30,-173,-82r64,-83v27,30,63,57,104,57v31,0,56,-21,56,-53v0,-43,-49,-53,-98,-74v-49,-21,-98,-50,-98,-129v0,-92,64,-159,156,-159v52,0,118,16,158,51","w":410},"t":{"d":"207,-373r0,373r-140,0r0,-373r-48,0r0,-118r48,0r0,-166r140,0r0,166r86,0r0,118r-86,0","w":274},"u":{"d":"47,-491r140,0r0,266v0,56,9,123,80,123v71,0,80,-67,80,-123r0,-266r140,0r0,289v0,143,-74,218,-220,218v-146,0,-220,-75,-220,-218r0,-289","w":535},"v":{"d":"136,-491r115,277r101,-277r153,0r-226,501r-72,0r-225,-501r154,0","w":488,"k":{",":80,".":60}},"w":{"d":"135,-491r102,283r120,-299r67,0r121,303r104,-287r152,0r-228,501r-71,0r-105,-299r-117,299r-72,0r-226,-501r153,0","w":783,"k":{",":80,".":60}},"x":{"d":"192,-267r-169,-224r170,0r91,127r78,-127r172,0r-174,224r207,267r-172,0r-126,-171r-113,171r-174,0","w":549},"y":{"d":"191,-75r-209,-416r159,0r117,279r126,-279r156,0r-357,753r-154,0","w":520,"k":{",":80,".":80}},"z":{"d":"232,-118r233,0r0,118r-466,0r251,-373r-212,0r0,-118r443,0","w":481},"{":{"d":"68,-300r0,-73v97,-35,75,-201,75,-333v0,-80,55,-132,85,-132r92,0r0,91r-40,0v-31,0,-31,29,-31,62r0,177v0,115,-63,163,-76,172v13,8,76,56,76,171r0,177v0,33,0,62,31,62r40,0r0,91r-92,0v-30,0,-85,-52,-85,-132v0,-132,23,-298,-75,-333","w":389},"|":{"d":"328,-786r0,1000r-118,0r0,-1000r118,0","w":538},"}":{"d":"321,-373r0,73v-97,35,-75,201,-75,333v0,80,-55,132,-85,132r-92,0r0,-91r40,0v31,0,31,-29,31,-62r0,-177v0,-115,63,-163,76,-171v-13,-9,-76,-57,-76,-172r0,-177v0,-33,0,-62,-31,-62r-40,0r0,-91r92,0v30,0,85,52,85,132v0,132,-23,298,75,333","w":389},"~":{"d":"186,-383v72,0,139,98,206,98v23,0,45,-53,54,-78r99,90v-31,54,-80,143,-152,143v-79,0,-146,-97,-205,-97v-22,0,-44,48,-56,77r-99,-88v37,-48,82,-145,153,-145"},"'":{"d":"88,-754r120,0r-18,328r-84,0","w":296},"`":{"d":"79,-712r102,-62r120,168r-71,44","w":380},"\u03bc":{"d":"47,-491r140,0r0,266v0,56,9,123,80,123v71,0,80,-67,80,-123r0,-266r140,0r0,289v0,143,-74,218,-220,218v-39,0,-59,-16,-80,-30r0,276r-140,0r0,-753","w":535},"\u03c0":{"d":"600,-461r-74,0v3,142,-10,353,14,461r-126,0v-32,-96,-13,-324,-18,-461r-145,0v-6,118,-31,343,-69,461r-125,0v36,-130,63,-340,66,-461v-52,0,-80,4,-102,10r-15,-88v26,-21,81,-36,169,-36r435,0","w":625},"\u03a9":{"d":"180,-108r0,-3v-64,-65,-126,-173,-126,-313v0,-194,127,-353,314,-353v200,0,305,183,305,345v0,143,-63,258,-127,321r0,3r142,0r0,108r-270,0r0,-79v63,-44,124,-148,124,-323v0,-136,-60,-263,-176,-263v-110,0,-181,113,-181,268v0,160,61,276,124,318r0,79r-270,0r0,-108r141,0","w":729},"\u00a0":{"w":289}}});
